<?xml version="1.0"?>
<opencv_storage>
<cascade>
  <stageType>BOOST</stageType>
  <featureType>HAAR</featureType>
  <height>40</height>
  <width>40</width>
  <stageParams>
    <boostType>GAB</boostType>
    <minHitRate>9.9500000476837158e-01</minHitRate>
    <maxFalseAlarm>5.0000000000000000e-01</maxFalseAlarm>
    <weightTrimRate>9.4999999999999996e-01</weightTrimRate>
    <maxDepth>1</maxDepth>
    <maxWeakCount>100</maxWeakCount></stageParams>
  <featureParams>
    <maxCatCount>0</maxCatCount>
    <featSize>1</featSize>
    <mode>BASIC</mode></featureParams>
  <stageNum>10</stageNum>
  <stages>
    <!-- stage 0 -->
    <_>
      <maxWeakCount>3</maxWeakCount>
      <stageThreshold>3.4681910276412964e-01</stageThreshold>
      <weakClassifiers>
        <_>
          <internalNodes>
            0 -1 15 9.7362138330936432e-03</internalNodes>
          <leafValues>
            6.8292683362960815e-01 -8.8888889551162720e-01</leafValues></_>
        <_>
          <internalNodes>
            0 -1 10 -4.6329791657626629e-03</internalNodes>
          <leafValues>
            -8.8042819499969482e-01 6.0179769992828369e-01</leafValues></_>
        <_>
          <internalNodes>
            0 -1 20 4.3012964306399226e-04</internalNodes>
          <leafValues>
            6.3391029834747314e-01 -8.0547624826431274e-01</leafValues></_></weakClassifiers></_>
    <!-- stage 1 -->
    <_>
      <maxWeakCount>3</maxWeakCount>
      <stageThreshold>-7.1476317942142487e-02</stageThreshold>
      <weakClassifiers>
        <_>
          <internalNodes>
            0 -1 16 1.5210993587970734e-03</internalNodes>
          <leafValues>
            -2.0000000298023224e-01 1.</leafValues></_>
        <_>
          <internalNodes>
            0 -1 22 -1.0626484639942646e-02</internalNodes>
          <leafValues>
            -7.1753871440887451e-01 6.6109621524810791e-01</leafValues></_>
        <_>
          <internalNodes>
            0 -1 3 8.5088498890399933e-03</internalNodes>
          <leafValues>
            -5.1757329702377319e-01 8.4606236219406128e-01</leafValues></_></weakClassifiers></_>
    <!-- stage 2 -->
    <_>
      <maxWeakCount>5</maxWeakCount>
      <stageThreshold>5.7087261229753494e-03</stageThreshold>
      <weakClassifiers>
        <_>
          <internalNodes>
            0 -1 26 9.4065489247441292e-03</internalNodes>
          <leafValues>
            6.0919541120529175e-01 -1.</leafValues></_>
        <_>
          <internalNodes>
            0 -1 17 6.5734704548958689e-05</internalNodes>
          <leafValues>
            -4.5611980557441711e-01 9.1548794507980347e-01</leafValues></_>
        <_>
          <internalNodes>
            0 -1 7 -4.4723792234435678e-04</internalNodes>
          <leafValues>
            9.5201063156127930e-01 -3.5462251305580139e-01</leafValues></_>
        <_>
          <internalNodes>
            0 -1 23 4.2027130257338285e-04</internalNodes>
          <leafValues>
            -4.4141983985900879e-01 9.0886986255645752e-01</leafValues></_>
        <_>
          <internalNodes>
            0 -1 19 -7.8465999104082584e-04</internalNodes>
          <leafValues>
            -7.1672910451889038e-01 6.4867550134658813e-01</leafValues></_></weakClassifiers></_>
    <!-- stage 3 -->
    <_>
      <maxWeakCount>3</maxWeakCount>
      <stageThreshold>6.0725486278533936e-01</stageThreshold>
      <weakClassifiers>
        <_>
          <internalNodes>
            0 -1 21 -4.9363719299435616e-03</internalNodes>
          <leafValues>
            -1. 6.2790697813034058e-01</leafValues></_>
        <_>
          <internalNodes>
            0 -1 13 -2.3965088184922934e-03</internalNodes>
          <leafValues>
            -7.9954093694686890e-01 5.1275932788848877e-01</leafValues></_>
        <_>
          <internalNodes>
            0 -1 1 -3.0583853367716074e-04</internalNodes>
          <leafValues>
            8.5329371690750122e-01 -5.3341138362884521e-01</leafValues></_></weakClassifiers></_>
    <!-- stage 4 -->
    <_>
      <maxWeakCount>3</maxWeakCount>
      <stageThreshold>-6.3736110925674438e-01</stageThreshold>
      <weakClassifiers>
        <_>
          <internalNodes>
            0 -1 27 -5.1693420391529799e-04</internalNodes>
          <leafValues>
            -8.7500000000000000e-01 6.4285713434219360e-01</leafValues></_>
        <_>
          <internalNodes>
            0 -1 25 1.3827381189912558e-03</internalNodes>
          <leafValues>
            6.1791127920150757e-01 -7.8646010160446167e-01</leafValues></_>
        <_>
          <internalNodes>
            0 -1 5 2.3543173447251320e-02</internalNodes>
          <leafValues>
            -4.9375811219215393e-01 1.</leafValues></_></weakClassifiers></_>
    <!-- stage 5 -->
    <_>
      <maxWeakCount>3</maxWeakCount>
      <stageThreshold>-6.2672293186187744e-01</stageThreshold>
      <weakClassifiers>
        <_>
          <internalNodes>
            0 -1 24 -1.0347878560423851e-03</internalNodes>
          <leafValues>
            -7.7777779102325439e-01 6.5853661298751831e-01</leafValues></_>
        <_>
          <internalNodes>
            0 -1 9 -1.1883234605193138e-02</internalNodes>
          <leafValues>
            -6.7214685678482056e-01 6.2246233224868774e-01</leafValues></_>
        <_>
          <internalNodes>
            0 -1 28 2.0181603031232953e-04</internalNodes>
          <leafValues>
            7.7963560819625854e-01 -6.1311262845993042e-01</leafValues></_></weakClassifiers></_>
    <!-- stage 6 -->
    <_>
      <maxWeakCount>1</maxWeakCount>
      <stageThreshold>6.4705884456634521e-01</stageThreshold>
      <weakClassifiers>
        <_>
          <internalNodes>
            0 -1 14 -3.7735581398010254e-02</internalNodes>
          <leafValues>
            -1. 6.4705884456634521e-01</leafValues></_></weakClassifiers></_>
    <!-- stage 7 -->
    <_>
      <maxWeakCount>3</maxWeakCount>
      <stageThreshold>-4.3828487396240234e-01</stageThreshold>
      <weakClassifiers>
        <_>
          <internalNodes>
            0 -1 11 -3.6359142977744341e-03</internalNodes>
          <leafValues>
            -7.1428573131561279e-01 6.9620251655578613e-01</leafValues></_>
        <_>
          <internalNodes>
            0 -1 2 2.4532276438549161e-04</internalNodes>
          <leafValues>
            7.6943284273147583e-01 -5.0722950696945190e-01</leafValues></_>
        <_>
          <internalNodes>
            0 -1 18 2.3581003770232201e-03</internalNodes>
          <leafValues>
            6.1494737863540649e-01 -6.2725788354873657e-01</leafValues></_></weakClassifiers></_>
    <!-- stage 8 -->
    <_>
      <maxWeakCount>2</maxWeakCount>
      <stageThreshold>2.8850454092025757e-01</stageThreshold>
      <weakClassifiers>
        <_>
          <internalNodes>
            0 -1 0 -3.3142622560262680e-03</internalNodes>
          <leafValues>
            9.2857140302658081e-01 -2.7272728085517883e-01</leafValues></_>
        <_>
          <internalNodes>
            0 -1 8 2.3707440122961998e-03</internalNodes>
          <leafValues>
            6.4194130897521973e-01 -6.4006692171096802e-01</leafValues></_></weakClassifiers></_>
    <!-- stage 9 -->
    <_>
      <maxWeakCount>3</maxWeakCount>
      <stageThreshold>5.9762978553771973e-01</stageThreshold>
      <weakClassifiers>
        <_>
          <internalNodes>
            0 -1 6 -7.1973132435232401e-04</internalNodes>
          <leafValues>
            -7.2727274894714355e-01 7.1794873476028442e-01</leafValues></_>
        <_>
          <internalNodes>
            0 -1 4 7.7446422073990107e-04</internalNodes>
          <leafValues>
            6.6735553741455078e-01 -6.9975292682647705e-01</leafValues></_>
        <_>
          <internalNodes>
            0 -1 12 4.5365793630480766e-03</internalNodes>
          <leafValues>
            6.5754699707031250e-01 -7.2372251749038696e-01</leafValues></_></weakClassifiers></_></stages>
  <features>
    <_>
      <rects>
        <_>
          0 0 32 9 -1.</_>
        <_>
          0 3 32 3 3.</_></rects>
      <tilted>0</tilted></_>
    <_>
      <rects>
        <_>
          0 16 6 3 -1.</_>
        <_>
          2 16 2 3 3.</_></rects>
      <tilted>0</tilted></_>
    <_>
      <rects>
        <_>
          1 34 4 5 -1.</_>
        <_>
          3 34 2 5 2.</_></rects>
      <tilted>0</tilted></_>
    <_>
      <rects>
        <_>
          4 3 28 24 -1.</_>
        <_>
          4 11 28 8 3.</_></rects>
      <tilted>0</tilted></_>
    <_>
      <rects>
        <_>
          4 23 3 8 -1.</_>
        <_>
          5 23 1 8 3.</_></rects>
      <tilted>0</tilted></_>
    <_>
      <rects>
        <_>
          5 3 29 8 -1.</_>
        <_>
          5 7 29 4 2.</_></rects>
      <tilted>0</tilted></_>
    <_>
      <rects>
        <_>
          7 31 6 1 -1.</_>
        <_>
          9 31 2 1 3.</_></rects>
      <tilted>0</tilted></_>
    <_>
      <rects>
        <_>
          8 0 10 4 -1.</_>
        <_>
          13 0 5 4 2.</_></rects>
      <tilted>0</tilted></_>
    <_>
      <rects>
        <_>
          8 28 6 12 -1.</_>
        <_>
          10 28 2 12 3.</_></rects>
      <tilted>0</tilted></_>
    <_>
      <rects>
        <_>
          10 2 2 38 -1.</_>
        <_>
          10 21 2 19 2.</_></rects>
      <tilted>0</tilted></_>
    <_>
      <rects>
        <_>
          14 4 6 10 -1.</_>
        <_>
          16 4 2 10 3.</_></rects>
      <tilted>0</tilted></_>
    <_>
      <rects>
        <_>
          14 5 3 34 -1.</_>
        <_>
          15 5 1 34 3.</_></rects>
      <tilted>0</tilted></_>
    <_>
      <rects>
        <_>
          14 22 10 8 -1.</_>
        <_>
          19 22 5 8 2.</_></rects>
      <tilted>0</tilted></_>
    <_>
      <rects>
        <_>
          14 25 9 2 -1.</_>
        <_>
          17 25 3 2 3.</_></rects>
      <tilted>0</tilted></_>
    <_>
      <rects>
        <_>
          15 24 15 16 -1.</_>
        <_>
          20 24 5 16 3.</_></rects>
      <tilted>0</tilted></_>
    <_>
      <rects>
        <_>
          17 35 15 5 -1.</_>
        <_>
          22 35 5 5 3.</_></rects>
      <tilted>0</tilted></_>
    <_>
      <rects>
        <_>
          18 4 6 6 -1.</_>
        <_>
          18 7 6 3 2.</_></rects>
      <tilted>0</tilted></_>
    <_>
      <rects>
        <_>
          18 8 3 3 -1.</_>
        <_>
          18 9 3 1 3.</_></rects>
      <tilted>0</tilted></_>
    <_>
      <rects>
        <_>
          18 24 6 12 -1.</_>
        <_>
          20 24 2 12 3.</_></rects>
      <tilted>0</tilted></_>
    <_>
      <rects>
        <_>
          19 25 4 8 -1.</_>
        <_>
          19 25 2 4 2.</_>
        <_>
          21 29 2 4 2.</_></rects>
      <tilted>0</tilted></_>
    <_>
      <rects>
        <_>
          20 25 2 10 -1.</_>
        <_>
          20 25 1 5 2.</_>
        <_>
          21 30 1 5 2.</_></rects>
      <tilted>0</tilted></_>
    <_>
      <rects>
        <_>
          26 8 3 31 -1.</_>
        <_>
          27 8 1 31 3.</_></rects>
      <tilted>0</tilted></_>
    <_>
      <rects>
        <_>
          26 14 9 18 -1.</_>
        <_>
          29 14 3 18 3.</_></rects>
      <tilted>0</tilted></_>
    <_>
      <rects>
        <_>
          28 3 1 6 -1.</_>
        <_>
          28 6 1 3 2.</_></rects>
      <tilted>0</tilted></_>
    <_>
      <rects>
        <_>
          30 7 3 4 -1.</_>
        <_>
          31 7 1 4 3.</_></rects>
      <tilted>0</tilted></_>
    <_>
      <rects>
        <_>
          31 15 3 4 -1.</_>
        <_>
          32 15 1 4 3.</_></rects>
      <tilted>0</tilted></_>
    <_>
      <rects>
        <_>
          34 8 3 32 -1.</_>
        <_>
          35 8 1 32 3.</_></rects>
      <tilted>0</tilted></_>
    <_>
      <rects>
        <_>
          35 39 4 1 -1.</_>
        <_>
          37 39 2 1 2.</_></rects>
      <tilted>0</tilted></_>
    <_>
      <rects>
        <_>
          36 18 3 17 -1.</_>
        <_>
          37 18 1 17 3.</_></rects>
      <tilted>0</tilted></_></features></cascade>
</opencv_storage>
